{"sizes":[19,9,2],"layers":[{"0":{},"1":{},"2":{},"3":{},"4":{},"5":{},"6":{},"7":{},"8":{},"9":{},"10":{},"11":{},"12":{},"13":{},"14":{},"15":{},"16":{},"17":{},"18":{}},{"0":{"bias":0.24317191541194916,"weights":{"0":-2.360410451889038,"1":-0.8310144543647766,"2":-0.4813130795955658,"3":0.14567838609218597,"4":0.0001714278187137097,"5":-0.0700957253575325,"6":2.3937668800354004,"7":0.2415112555027008,"8":-2.4608006477355957,"9":-3.123239278793335,"10":0.8390112519264221,"11":3.3329224586486816,"12":-0.762613832950592,"13":2.2731435298919678,"14":-4.225681781768799,"15":-0.048635441809892654,"16":2.2563657760620117,"17":-0.1901511698961258,"18":1.2965773344039917}},"1":{"bias":-0.0928954929113388,"weights":{"0":3.5151374340057373,"1":1.867148756980896,"2":-0.3721581697463989,"3":-0.16234077513217926,"4":0.17917059361934662,"5":0.07714776694774628,"6":-2.018223285675049,"7":-0.8984206318855286,"8":2.3941240310668945,"9":3.918656826019287,"10":-0.688119113445282,"11":-3.863713026046753,"12":1.7363022565841675,"13":-2.595852851867676,"14":3.7503671646118164,"15":-0.3906119465827942,"16":-2.934868097305298,"17":0.1838437020778656,"18":-2.031856060028076}},"2":{"bias":0.1798936277627945,"weights":{"0":4.768240928649902,"1":2.778167486190796,"2":-0.3512360155582428,"3":-0.14264236390590668,"4":0.1269180327653885,"5":0.1009565219283104,"6":-3.467391014099121,"7":-1.5019590854644775,"8":3.287179708480835,"9":5.301938056945801,"10":-0.9785822033882141,"11":-6.002659320831299,"12":2.0224876403808594,"13":-3.3697261810302734,"14":5.410328388214111,"15":-0.3831403851509094,"16":-3.8587236404418945,"17":0.3412364721298218,"18":-2.88446044921875}},"3":{"bias":-0.3078087866306305,"weights":{"0":0.785597562789917,"1":0.3699479401111603,"2":-0.12493414431810379,"3":-0.01819481886923313,"4":0.06077169254422188,"5":0.06805409491062164,"6":-0.641081690788269,"7":-0.07603999972343445,"8":0.75090092420578,"9":0.7644853591918945,"10":-0.15955083072185516,"11":-0.878524899482727,"12":0.28242361545562744,"13":-0.6886191964149475,"14":0.925248920917511,"15":-0.18725275993347168,"16":-0.629695475101471,"17":-0.008179772645235062,"18":-0.5881806015968323}},"4":{"bias":-0.1019340306520462,"weights":{"0":0.7709972858428955,"1":0.3940656781196594,"2":-0.18761618435382843,"3":-0.24791701138019562,"4":-0.033830426633358,"5":0.07721148431301117,"6":-0.3979973793029785,"7":-0.04171278700232506,"8":0.35408079624176025,"9":0.7532359957695007,"10":-0.3721197843551636,"11":-0.6816642880439758,"12":0.3889811933040619,"13":-0.5538808703422546,"14":0.8091309070587158,"15":-0.295542448759079,"16":-0.7006200551986694,"17":0.06559181958436966,"18":-0.8793721795082092}},"5":{"bias":0.050377536565065384,"weights":{"0":-0.7422829866409302,"1":-0.2143329679965973,"2":-0.5692293643951416,"3":0.19277548789978027,"4":-0.09001423418521881,"5":-0.01712833344936371,"6":0.6357578635215759,"7":-0.4176783561706543,"8":-0.7967323064804077,"9":-0.7247065901756287,"10":0.1417919099330902,"11":0.7633461952209473,"12":-0.020421210676431656,"13":0.42368632555007935,"14":-1.577903389930725,"15":0.011907299049198627,"16":0.5493673086166382,"17":0.037088170647621155,"18":-0.0021534315310418606}},"6":{"bias":-0.4444408416748047,"weights":{"0":-0.12994496524333954,"1":-0.11434277892112732,"2":-0.26527702808380127,"3":-0.0067025963217020035,"4":-0.19018733501434326,"5":-0.0015084152109920979,"6":0.3774299919605255,"7":-0.25428199768066406,"8":-0.41368791460990906,"9":-0.687132716178894,"10":0.06818601489067078,"11":0.14621631801128387,"12":0.01794731616973877,"13":0.07690166682004929,"14":-1.0811970233917236,"15":-0.029456762596964836,"16":0.2607913315296173,"17":-0.2838243842124939,"18":-0.07424033433198929}},"7":{"bias":0.3908384442329407,"weights":{"0":-2.1970694065093994,"1":0.04887887090444565,"2":-0.9304344058036804,"3":-0.31257447600364685,"4":0.25843527913093567,"5":-0.0704796239733696,"6":2.70863938331604,"7":-0.12316370755434036,"8":-2.9736862182617188,"9":-3.202148199081421,"10":0.9170612096786499,"11":3.1944446563720703,"12":-0.8998745083808899,"13":2.4317800998687744,"14":-5.491804599761963,"15":0.1605830043554306,"16":2.3502306938171387,"17":-0.08031901717185974,"18":1.4177236557006836}},"8":{"bias":0.177864670753479,"weights":{"0":-3.2973170280456543,"1":-0.937076985836029,"2":-0.49725866317749023,"3":-0.1835356056690216,"4":0.2676313817501068,"5":-0.08739365637302399,"6":3.231351852416992,"7":0.6593865156173706,"8":-3.2616302967071533,"9":-3.913799285888672,"10":1.151894450187683,"11":4.476204872131348,"12":-1.4111533164978027,"13":2.974910020828247,"14":-5.682365894317627,"15":0.1241689920425415,"16":2.862464666366577,"17":-0.27625957131385803,"18":2.022003412246704}}},{"trump":{"bias":0.0934639573097229,"weights":{"0":4.560433864593506,"1":-5.194879055023193,"2":-7.463007926940918,"3":-1.2401293516159058,"4":-1.0753815174102783,"5":1.4554425477981567,"6":0.7604818344116211,"7":5.031556606292725,"8":5.894985198974609}},"kardashian":{"bias":-0.14970992505550385,"weights":{"0":-4.426104545593262,"1":5.202759265899658,"2":7.335659980773926,"3":1.3669629096984863,"4":1.22279953956604,"5":-1.2931396961212158,"6":-0.7301399111747742,"7":-5.09961462020874,"8":-6.065943717956543}}}],"outputLookup":true,"inputLookup":false,"activation":"sigmoid","trainOpts":{"iterations":1000,"errorThresh":0.005,"log":true,"logPeriod":10,"learningRate":0.5,"momentum":0.1,"callbackPeriod":10,"timeout":500,"beta1":0.9,"beta2":0.999,"epsilon":1e-8}}